digraph Tree {
node [shape=box] ;
0 [label="age <= 0.5\ngini = 0.23\nsamples = 68\nvalue = [9, 59]"] ;
1 [label="time <= 0.5\ngini = 0.444\nsamples = 27\nvalue = [9, 18]"] ;
0 -> 1 [labeldistance=2.5, labelangle=45, headlabel="True"] ;
2 [label="water <= 4.0\ngini = 0.298\nsamples = 11\nvalue = [9, 2]"] ;
1 -> 2 ;
3 [label="gini = 0.0\nsamples = 9\nvalue = [9, 0]"] ;
2 -> 3 ;
4 [label="gini = 0.0\nsamples = 2\nvalue = [0, 2]"] ;
2 -> 4 ;
5 [label="gini = 0.0\nsamples = 16\nvalue = [0, 16]"] ;
1 -> 5 ;
6 [label="gini = 0.0\nsamples = 41\nvalue = [0, 41]"] ;
0 -> 6 [labeldistance=2.5, labelangle=-45, headlabel="False"] ;
}